digraph Tree {
node [shape=box] ;
0 [label="GarageCars <= 1.5\ngini = 0.997\nsamples = 1021\nvalue = [1, 1, 1, 3, 1, 1, 1, 1, 2, 1, 1, 1, 1, 1\n1, 1, 2, 1, 1, 2, 3, 3, 3, 1, 1, 2, 1, 4\n1, 1, 1, 2, 4, 1, 1, 1, 2, 1, 1, 1, 2, 1\n1, 2, 1, 1, 2, 2, 1, 2, 1, 1, 1, 1, 5, 1\n2, 1, 1, 1, 2, 5, 1, 3, 2, 2, 1, 1, 1, 4\n1, 1, 1, 2, 1, 2, 2, 10, 1, 1, 3, 1, 2, 1\n9, 2, 1, 1, 3, 2, 5, 1, 4, 1, 1, 6, 4, 1\n2, 5, 3, 1, 1, 4, 1, 1, 2, 1, 1, 4, 4, 2\n9, 3, 2, 1, 5, 6, 5, 1, 2, 1, 4, 4, 3, 8\n1, 2, 2, 1, 1, 4, 3, 5, 1, 1, 2, 3, 1, 1\n1, 2, 10, 2, 1, 1, 2, 3, 1, 1, 2, 1, 4, 1\n3, 2, 1, 1, 7, 2, 1, 9, 1, 5, 1, 2, 1, 2\n1, 8, 1, 2, 1, 1, 7, 2, 1, 5, 1, 1, 2, 8\n1, 6, 2, 1, 4, 1, 1, 1, 3, 3, 5, 1, 1, 3\n2, 1, 1, 1, 4, 1, 1, 7, 1, 1, 1, 1, 5, 1\n2, 4, 1, 2, 1, 1, 1, 1, 8, 1, 2, 2, 1, 4\n1, 1, 3, 2, 1, 3, 1, 1, 6, 2, 1, 1, 4, 1\n2, 2, 1, 2, 2, 1, 1, 1, 7, 3, 1, 1, 1, 1\n5, 5, 1, 1, 4, 1, 1, 7, 3, 1, 6, 1, 1, 2\n4, 2, 4, 1, 1, 1, 1, 1, 1, 1, 3, 7, 2, 7\n1, 1, 1, 1, 1, 1, 1, 2, 1, 1, 1, 8, 1, 1\n1, 1, 2, 1, 4, 1, 2, 1, 1, 5, 9, 1, 4, 1\n2, 3, 2, 1, 3, 2, 1, 2, 1, 2, 1, 3, 2, 1\n2, 5, 1, 1, 2, 1, 3, 1, 3, 1, 1, 2, 1, 1\n1, 4, 1, 1, 1, 2, 1, 2, 1, 5, 1, 2, 1, 1\n2, 2, 1, 8, 1, 1, 2, 1, 1, 1, 1, 1, 2, 1\n1, 1, 1, 2, 1, 2, 4, 3, 1, 3, 1, 2, 2, 1\n1, 5, 1, 1, 2, 1, 1, 1, 1, 1, 6, 1, 1, 1\n2, 1, 1, 4, 1, 1, 1, 1, 5, 1, 2, 2, 2, 1\n1, 1, 1, 1, 1, 1, 1, 1, 5, 1, 1, 1, 1, 1\n1, 1, 1, 1, 1, 1, 5, 1, 1, 1, 2, 1, 1, 1\n2, 1, 1, 3, 1, 1, 1, 1, 1, 1, 5, 1, 1, 2\n1, 4, 1, 1, 1, 2, 2, 1, 1, 1, 3, 1, 1, 1\n1, 1, 1, 1, 1, 1, 1, 1, 1, 1, 1, 1, 1, 4\n1, 1, 1, 1, 3, 1, 4, 1, 1, 1, 2, 1, 1, 1\n1, 2, 1, 2, 1, 2, 1, 1, 1, 1, 1, 1, 1, 1\n1, 1, 1, 2, 1, 1, 1, 1, 1, 1, 1, 1, 1, 1\n1, 1, 1, 1, 1, 1, 1, 1, 1, 1, 1, 1, 1, 1]\nclass = y[77]"] ;
1 [label="OverallQual <= 2.5\ngini = 0.992\nsamples = 319\nvalue = [1, 1, 1, 3, 1, 1, 1, 1, 2, 0, 1, 1, 0, 1\n1, 1, 2, 1, 1, 2, 2, 2, 1, 1, 1, 2, 1, 4\n1, 1, 1, 1, 4, 1, 0, 1, 0, 1, 1, 1, 2, 1\n0, 1, 1, 1, 2, 1, 1, 1, 0, 0, 1, 1, 5, 0\n1, 1, 1, 1, 2, 4, 0, 1, 2, 1, 1, 1, 1, 3\n1, 1, 0, 2, 1, 1, 1, 5, 1, 1, 2, 0, 2, 0\n7, 0, 1, 1, 2, 2, 5, 1, 4, 0, 0, 6, 4, 1\n1, 4, 1, 1, 0, 3, 0, 0, 0, 1, 1, 4, 2, 1\n7, 2, 1, 0, 5, 4, 4, 1, 1, 1, 3, 1, 1, 4\n1, 2, 0, 1, 0, 3, 1, 4, 1, 1, 1, 1, 0, 1\n1, 0, 7, 2, 1, 0, 2, 3, 1, 0, 1, 1, 1, 0\n1, 2, 1, 1, 5, 2, 0, 1, 1, 4, 0, 2, 1, 0\n0, 3, 0, 1, 0, 1, 3, 1, 0, 1, 1, 1, 0, 2\n1, 1, 0, 0, 2, 0, 0, 0, 1, 1, 0, 0, 1, 2\n1, 0, 0, 1, 1, 1, 1, 0, 0, 0, 0, 0, 2, 0\n2, 3, 0, 0, 1, 0, 0, 0, 4, 0, 1, 1, 1, 0\n0, 0, 0, 0, 0, 1, 0, 0, 2, 1, 0, 0, 0, 0\n0, 0, 0, 0, 1, 1, 0, 0, 1, 1, 0, 0, 0, 0\n0, 0, 0, 0, 0, 1, 0, 0, 0, 0, 0, 0, 0, 0\n1, 1, 0, 0, 0, 0, 1, 0, 0, 1, 0, 0, 0, 0\n0, 0, 0, 0, 0, 0, 0, 0, 0, 0, 0, 0, 0, 0\n0, 0, 0, 0, 0, 0, 0, 0, 1, 0, 1, 0, 0, 0\n0, 0, 1, 0, 0, 0, 0, 0, 0, 0, 0, 0, 0, 0\n0, 1, 1, 0, 1, 0, 0, 0, 0, 0, 0, 0, 0, 0\n0, 0, 0, 0, 0, 0, 0, 0, 0, 0, 0, 0, 0, 0\n0, 0, 0, 0, 0, 0, 0, 0, 0, 0, 0, 0, 0, 0\n0, 0, 0, 0, 0, 0, 1, 0, 0, 0, 0, 0, 0, 0\n0, 0, 0, 0, 0, 0, 0, 0, 0, 1, 0, 0, 0, 0\n0, 0, 0, 0, 0, 0, 0, 0, 0, 0, 0, 0, 0, 1\n0, 0, 0, 0, 0, 0, 0, 0, 1, 0, 0, 0, 0, 0\n0, 0, 0, 0, 0, 0, 0, 0, 0, 0, 0, 0, 0, 0\n0, 1, 0, 0, 0, 0, 0, 0, 0, 0, 0, 0, 0, 0\n0, 0, 0, 0, 0, 0, 0, 0, 0, 0, 0, 0, 0, 0\n0, 0, 0, 0, 0, 0, 0, 0, 0, 0, 0, 0, 0, 0\n0, 0, 0, 0, 0, 0, 0, 0, 0, 0, 0, 0, 0, 0\n0, 0, 0, 0, 0, 0, 0, 0, 0, 0, 0, 0, 0, 0\n0, 0, 0, 0, 0, 0, 0, 0, 0, 0, 0, 0, 0, 0\n0, 0, 0, 0, 0, 0, 0, 0, 0, 0, 0, 0, 0, 0]\nclass = y[84]"] ;
0 -> 1 [labeldistance=2.5, labelangle=45, headlabel="True"] ;
2 [label="FullBath <= 0.5\ngini = 0.444\nsamples = 3\nvalue = [0, 0, 0, 2, 1, 0, 0, 0, 0, 0, 0, 0, 0, 0\n0, 0, 0, 0, 0, 0, 0, 0, 0, 0, 0, 0, 0, 0\n0, 0, 0, 0, 0, 0, 0, 0, 0, 0, 0, 0, 0, 0\n0, 0, 0, 0, 0, 0, 0, 0, 0, 0, 0, 0, 0, 0\n0, 0, 0, 0, 0, 0, 0, 0, 0, 0, 0, 0, 0, 0\n0, 0, 0, 0, 0, 0, 0, 0, 0, 0, 0, 0, 0, 0\n0, 0, 0, 0, 0, 0, 0, 0, 0, 0, 0, 0, 0, 0\n0, 0, 0, 0, 0, 0, 0, 0, 0, 0, 0, 0, 0, 0\n0, 0, 0, 0, 0, 0, 0, 0, 0, 0, 0, 0, 0, 0\n0, 0, 0, 0, 0, 0, 0, 0, 0, 0, 0, 0, 0, 0\n0, 0, 0, 0, 0, 0, 0, 0, 0, 0, 0, 0, 0, 0\n0, 0, 0, 0, 0, 0, 0, 0, 0, 0, 0, 0, 0, 0\n0, 0, 0, 0, 0, 0, 0, 0, 0, 0, 0, 0, 0, 0\n0, 0, 0, 0, 0, 0, 0, 0, 0, 0, 0, 0, 0, 0\n0, 0, 0, 0, 0, 0, 0, 0, 0, 0, 0, 0, 0, 0\n0, 0, 0, 0, 0, 0, 0, 0, 0, 0, 0, 0, 0, 0\n0, 0, 0, 0, 0, 0, 0, 0, 0, 0, 0, 0, 0, 0\n0, 0, 0, 0, 0, 0, 0, 0, 0, 0, 0, 0, 0, 0\n0, 0, 0, 0, 0, 0, 0, 0, 0, 0, 0, 0, 0, 0\n0, 0, 0, 0, 0, 0, 0, 0, 0, 0, 0, 0, 0, 0\n0, 0, 0, 0, 0, 0, 0, 0, 0, 0, 0, 0, 0, 0\n0, 0, 0, 0, 0, 0, 0, 0, 0, 0, 0, 0, 0, 0\n0, 0, 0, 0, 0, 0, 0, 0, 0, 0, 0, 0, 0, 0\n0, 0, 0, 0, 0, 0, 0, 0, 0, 0, 0, 0, 0, 0\n0, 0, 0, 0, 0, 0, 0, 0, 0, 0, 0, 0, 0, 0\n0, 0, 0, 0, 0, 0, 0, 0, 0, 0, 0, 0, 0, 0\n0, 0, 0, 0, 0, 0, 0, 0, 0, 0, 0, 0, 0, 0\n0, 0, 0, 0, 0, 0, 0, 0, 0, 0, 0, 0, 0, 0\n0, 0, 0, 0, 0, 0, 0, 0, 0, 0, 0, 0, 0, 0\n0, 0, 0, 0, 0, 0, 0, 0, 0, 0, 0, 0, 0, 0\n0, 0, 0, 0, 0, 0, 0, 0, 0, 0, 0, 0, 0, 0\n0, 0, 0, 0, 0, 0, 0, 0, 0, 0, 0, 0, 0, 0\n0, 0, 0, 0, 0, 0, 0, 0, 0, 0, 0, 0, 0, 0\n0, 0, 0, 0, 0, 0, 0, 0, 0, 0, 0, 0, 0, 0\n0, 0, 0, 0, 0, 0, 0, 0, 0, 0, 0, 0, 0, 0\n0, 0, 0, 0, 0, 0, 0, 0, 0, 0, 0, 0, 0, 0\n0, 0, 0, 0, 0, 0, 0, 0, 0, 0, 0, 0, 0, 0\n0, 0, 0, 0, 0, 0, 0, 0, 0, 0, 0, 0, 0, 0]\nclass = y[3]"] ;
1 -> 2 ;
3 [label="(...)"] ;
2 -> 3 ;
4 [label="(...)"] ;
2 -> 4 ;
5 [label="TotRmsAbvGrd <= 5.5\ngini = 0.992\nsamples = 316\nvalue = [1, 1, 1, 1, 0, 1, 1, 1, 2, 0, 1, 1, 0, 1\n1, 1, 2, 1, 1, 2, 2, 2, 1, 1, 1, 2, 1, 4\n1, 1, 1, 1, 4, 1, 0, 1, 0, 1, 1, 1, 2, 1\n0, 1, 1, 1, 2, 1, 1, 1, 0, 0, 1, 1, 5, 0\n1, 1, 1, 1, 2, 4, 0, 1, 2, 1, 1, 1, 1, 3\n1, 1, 0, 2, 1, 1, 1, 5, 1, 1, 2, 0, 2, 0\n7, 0, 1, 1, 2, 2, 5, 1, 4, 0, 0, 6, 4, 1\n1, 4, 1, 1, 0, 3, 0, 0, 0, 1, 1, 4, 2, 1\n7, 2, 1, 0, 5, 4, 4, 1, 1, 1, 3, 1, 1, 4\n1, 2, 0, 1, 0, 3, 1, 4, 1, 1, 1, 1, 0, 1\n1, 0, 7, 2, 1, 0, 2, 3, 1, 0, 1, 1, 1, 0\n1, 2, 1, 1, 5, 2, 0, 1, 1, 4, 0, 2, 1, 0\n0, 3, 0, 1, 0, 1, 3, 1, 0, 1, 1, 1, 0, 2\n1, 1, 0, 0, 2, 0, 0, 0, 1, 1, 0, 0, 1, 2\n1, 0, 0, 1, 1, 1, 1, 0, 0, 0, 0, 0, 2, 0\n2, 3, 0, 0, 1, 0, 0, 0, 4, 0, 1, 1, 1, 0\n0, 0, 0, 0, 0, 1, 0, 0, 2, 1, 0, 0, 0, 0\n0, 0, 0, 0, 1, 1, 0, 0, 1, 1, 0, 0, 0, 0\n0, 0, 0, 0, 0, 1, 0, 0, 0, 0, 0, 0, 0, 0\n1, 1, 0, 0, 0, 0, 1, 0, 0, 1, 0, 0, 0, 0\n0, 0, 0, 0, 0, 0, 0, 0, 0, 0, 0, 0, 0, 0\n0, 0, 0, 0, 0, 0, 0, 0, 1, 0, 1, 0, 0, 0\n0, 0, 1, 0, 0, 0, 0, 0, 0, 0, 0, 0, 0, 0\n0, 1, 1, 0, 1, 0, 0, 0, 0, 0, 0, 0, 0, 0\n0, 0, 0, 0, 0, 0, 0, 0, 0, 0, 0, 0, 0, 0\n0, 0, 0, 0, 0, 0, 0, 0, 0, 0, 0, 0, 0, 0\n0, 0, 0, 0, 0, 0, 1, 0, 0, 0, 0, 0, 0, 0\n0, 0, 0, 0, 0, 0, 0, 0, 0, 1, 0, 0, 0, 0\n0, 0, 0, 0, 0, 0, 0, 0, 0, 0, 0, 0, 0, 1\n0, 0, 0, 0, 0, 0, 0, 0, 1, 0, 0, 0, 0, 0\n0, 0, 0, 0, 0, 0, 0, 0, 0, 0, 0, 0, 0, 0\n0, 1, 0, 0, 0, 0, 0, 0, 0, 0, 0, 0, 0, 0\n0, 0, 0, 0, 0, 0, 0, 0, 0, 0, 0, 0, 0, 0\n0, 0, 0, 0, 0, 0, 0, 0, 0, 0, 0, 0, 0, 0\n0, 0, 0, 0, 0, 0, 0, 0, 0, 0, 0, 0, 0, 0\n0, 0, 0, 0, 0, 0, 0, 0, 0, 0, 0, 0, 0, 0\n0, 0, 0, 0, 0, 0, 0, 0, 0, 0, 0, 0, 0, 0\n0, 0, 0, 0, 0, 0, 0, 0, 0, 0, 0, 0, 0, 0]\nclass = y[84]"] ;
1 -> 5 ;
6 [label="(...)"] ;
5 -> 6 ;
7 [label="(...)"] ;
5 -> 7 ;
8 [label="OverallQual <= 6.5\ngini = 0.996\nsamples = 702\nvalue = [0, 0, 0, 0, 0, 0, 0, 0, 0, 1, 0, 0, 1, 0\n0, 0, 0, 0, 0, 0, 1, 1, 2, 0, 0, 0, 0, 0\n0, 0, 0, 1, 0, 0, 1, 0, 2, 0, 0, 0, 0, 0\n1, 1, 0, 0, 0, 1, 0, 1, 1, 1, 0, 0, 0, 1\n1, 0, 0, 0, 0, 1, 1, 2, 0, 1, 0, 0, 0, 1\n0, 0, 1, 0, 0, 1, 1, 5, 0, 0, 1, 1, 0, 1\n2, 2, 0, 0, 1, 0, 0, 0, 0, 1, 1, 0, 0, 0\n1, 1, 2, 0, 1, 1, 1, 1, 2, 0, 0, 0, 2, 1\n2, 1, 1, 1, 0, 2, 1, 0, 1, 0, 1, 3, 2, 4\n0, 0, 2, 0, 1, 1, 2, 1, 0, 0, 1, 2, 1, 0\n0, 2, 3, 0, 0, 1, 0, 0, 0, 1, 1, 0, 3, 1\n2, 0, 0, 0, 2, 0, 1, 8, 0, 1, 1, 0, 0, 2\n1, 5, 1, 1, 1, 0, 4, 1, 1, 4, 0, 0, 2, 6\n0, 5, 2, 1, 2, 1, 1, 1, 2, 2, 5, 1, 0, 1\n1, 1, 1, 0, 3, 0, 0, 7, 1, 1, 1, 1, 3, 1\n0, 1, 1, 2, 0, 1, 1, 1, 4, 1, 1, 1, 0, 4\n1, 1, 3, 2, 1, 2, 1, 1, 4, 1, 1, 1, 4, 1\n2, 2, 1, 2, 1, 0, 1, 1, 6, 2, 1, 1, 1, 1\n5, 5, 1, 1, 4, 0, 1, 7, 3, 1, 6, 1, 1, 2\n3, 1, 4, 1, 1, 1, 0, 1, 1, 0, 3, 7, 2, 7\n1, 1, 1, 1, 1, 1, 1, 2, 1, 1, 1, 8, 1, 1\n1, 1, 2, 1, 4, 1, 2, 1, 0, 5, 8, 1, 4, 1\n2, 3, 1, 1, 3, 2, 1, 2, 1, 2, 1, 3, 2, 1\n2, 4, 0, 1, 1, 1, 3, 1, 3, 1, 1, 2, 1, 1\n1, 4, 1, 1, 1, 2, 1, 2, 1, 5, 1, 2, 1, 1\n2, 2, 1, 8, 1, 1, 2, 1, 1, 1, 1, 1, 2, 1\n1, 1, 1, 2, 1, 2, 3, 3, 1, 3, 1, 2, 2, 1\n1, 5, 1, 1, 2, 1, 1, 1, 1, 0, 6, 1, 1, 1\n2, 1, 1, 4, 1, 1, 1, 1, 5, 1, 2, 2, 2, 0\n1, 1, 1, 1, 1, 1, 1, 1, 4, 1, 1, 1, 1, 1\n1, 1, 1, 1, 1, 1, 5, 1, 1, 1, 2, 1, 1, 1\n2, 0, 1, 3, 1, 1, 1, 1, 1, 1, 5, 1, 1, 2\n1, 4, 1, 1, 1, 2, 2, 1, 1, 1, 3, 1, 1, 1\n1, 1, 1, 1, 1, 1, 1, 1, 1, 1, 1, 1, 1, 4\n1, 1, 1, 1, 3, 1, 4, 1, 1, 1, 2, 1, 1, 1\n1, 2, 1, 2, 1, 2, 1, 1, 1, 1, 1, 1, 1, 1\n1, 1, 1, 2, 1, 1, 1, 1, 1, 1, 1, 1, 1, 1\n1, 1, 1, 1, 1, 1, 1, 1, 1, 1, 1, 1, 1, 1]\nclass = y[161]"] ;
0 -> 8 [labeldistance=2.5, labelangle=-45, headlabel="False"] ;
9 [label="LotArea <= 41050.0\ngini = 0.993\nsamples = 329\nvalue = [0, 0, 0, 0, 0, 0, 0, 0, 0, 1, 0, 0, 1, 0\n0, 0, 0, 0, 0, 0, 1, 1, 1, 0, 0, 0, 0, 0\n0, 0, 0, 1, 0, 0, 1, 0, 2, 0, 0, 0, 0, 0\n1, 1, 0, 0, 0, 1, 0, 1, 1, 1, 0, 0, 0, 1\n1, 0, 0, 0, 0, 1, 1, 2, 0, 1, 0, 0, 0, 1\n0, 0, 1, 0, 0, 1, 1, 5, 0, 0, 1, 1, 0, 1\n2, 2, 0, 0, 1, 0, 0, 0, 0, 1, 1, 0, 0, 0\n1, 1, 2, 0, 1, 1, 1, 1, 2, 0, 0, 0, 2, 1\n2, 1, 1, 1, 0, 2, 1, 0, 1, 0, 1, 3, 1, 3\n0, 0, 2, 0, 1, 0, 2, 1, 0, 0, 1, 2, 1, 0\n0, 2, 3, 0, 0, 1, 0, 0, 0, 1, 1, 0, 3, 1\n2, 0, 0, 0, 2, 0, 1, 6, 0, 1, 1, 0, 0, 2\n1, 4, 1, 1, 1, 0, 4, 1, 1, 4, 0, 0, 1, 5\n0, 5, 2, 0, 2, 1, 1, 1, 2, 2, 3, 1, 0, 1\n1, 1, 1, 0, 2, 0, 0, 6, 0, 1, 1, 1, 1, 1\n0, 1, 1, 2, 0, 1, 0, 1, 3, 0, 0, 1, 0, 3\n1, 1, 3, 2, 1, 1, 1, 0, 3, 1, 1, 1, 3, 0\n2, 2, 1, 1, 1, 0, 1, 1, 3, 2, 1, 0, 1, 1\n3, 4, 1, 1, 2, 0, 1, 6, 1, 0, 3, 1, 0, 1\n3, 1, 2, 0, 0, 1, 0, 1, 0, 0, 2, 3, 1, 6\n0, 1, 1, 0, 0, 1, 0, 1, 0, 0, 0, 6, 0, 0\n1, 1, 2, 0, 1, 0, 1, 0, 0, 1, 5, 0, 0, 1\n0, 2, 1, 0, 1, 0, 1, 1, 0, 2, 0, 0, 0, 0\n0, 3, 0, 0, 1, 1, 1, 0, 0, 0, 0, 0, 0, 1\n0, 0, 0, 1, 0, 0, 1, 1, 0, 2, 1, 0, 0, 0\n0, 1, 1, 3, 0, 1, 2, 1, 1, 0, 0, 0, 0, 0\n0, 1, 1, 1, 0, 0, 0, 0, 0, 0, 0, 0, 0, 1\n0, 0, 0, 0, 0, 0, 0, 0, 0, 0, 2, 0, 0, 0\n0, 1, 0, 2, 0, 0, 0, 0, 2, 0, 0, 0, 1, 0\n0, 0, 0, 0, 0, 0, 0, 0, 0, 0, 0, 0, 0, 0\n0, 0, 0, 1, 0, 0, 0, 0, 0, 0, 0, 0, 0, 0\n0, 0, 0, 0, 0, 0, 0, 0, 0, 0, 0, 0, 0, 0\n0, 0, 0, 0, 0, 0, 0, 0, 0, 0, 0, 0, 0, 0\n0, 0, 0, 0, 0, 0, 0, 0, 0, 0, 0, 0, 0, 0\n0, 0, 0, 0, 0, 0, 0, 0, 0, 0, 0, 0, 0, 0\n0, 0, 0, 0, 0, 0, 0, 0, 0, 0, 0, 0, 0, 0\n0, 0, 0, 0, 0, 0, 0, 0, 0, 0, 0, 0, 0, 0\n0, 0, 0, 0, 0, 0, 0, 0, 0, 0, 0, 0, 0, 0]\nclass = y[161]"] ;
8 -> 9 ;
10 [label="(...)"] ;
9 -> 10 ;
11 [label="(...)"] ;
9 -> 11 ;
12 [label="OverallQual <= 8.5\ngini = 0.995\nsamples = 373\nvalue = [0, 0, 0, 0, 0, 0, 0, 0, 0, 0, 0, 0, 0, 0\n0, 0, 0, 0, 0, 0, 0, 0, 1, 0, 0, 0, 0, 0\n0, 0, 0, 0, 0, 0, 0, 0, 0, 0, 0, 0, 0, 0\n0, 0, 0, 0, 0, 0, 0, 0, 0, 0, 0, 0, 0, 0\n0, 0, 0, 0, 0, 0, 0, 0, 0, 0, 0, 0, 0, 0\n0, 0, 0, 0, 0, 0, 0, 0, 0, 0, 0, 0, 0, 0\n0, 0, 0, 0, 0, 0, 0, 0, 0, 0, 0, 0, 0, 0\n0, 0, 0, 0, 0, 0, 0, 0, 0, 0, 0, 0, 0, 0\n0, 0, 0, 0, 0, 0, 0, 0, 0, 0, 0, 0, 1, 1\n0, 0, 0, 0, 0, 1, 0, 0, 0, 0, 0, 0, 0, 0\n0, 0, 0, 0, 0, 0, 0, 0, 0, 0, 0, 0, 0, 0\n0, 0, 0, 0, 0, 0, 0, 2, 0, 0, 0, 0, 0, 0\n0, 1, 0, 0, 0, 0, 0, 0, 0, 0, 0, 0, 1, 1\n0, 0, 0, 1, 0, 0, 0, 0, 0, 0, 2, 0, 0, 0\n0, 0, 0, 0, 1, 0, 0, 1, 1, 0, 0, 0, 2, 0\n0, 0, 0, 0, 0, 0, 1, 0, 1, 1, 1, 0, 0, 1\n0, 0, 0, 0, 0, 1, 0, 1, 1, 0, 0, 0, 1, 1\n0, 0, 0, 1, 0, 0, 0, 0, 3, 0, 0, 1, 0, 0\n2, 1, 0, 0, 2, 0, 0, 1, 2, 1, 3, 0, 1, 1\n0, 0, 2, 1, 1, 0, 0, 0, 1, 0, 1, 4, 1, 1\n1, 0, 0, 1, 1, 0, 1, 1, 1, 1, 1, 2, 1, 1\n0, 0, 0, 1, 3, 1, 1, 1, 0, 4, 3, 1, 4, 0\n2, 1, 0, 1, 2, 2, 0, 1, 1, 0, 1, 3, 2, 1\n2, 1, 0, 1, 0, 0, 2, 1, 3, 1, 1, 2, 1, 0\n1, 4, 1, 0, 1, 2, 0, 1, 1, 3, 0, 2, 1, 1\n2, 1, 0, 5, 1, 0, 0, 0, 0, 1, 1, 1, 2, 1\n1, 0, 0, 1, 1, 2, 3, 3, 1, 3, 1, 2, 2, 0\n1, 5, 1, 1, 2, 1, 1, 1, 1, 0, 4, 1, 1, 1\n2, 0, 1, 2, 1, 1, 1, 1, 3, 1, 2, 2, 1, 0\n1, 1, 1, 1, 1, 1, 1, 1, 4, 1, 1, 1, 1, 1\n1, 1, 1, 0, 1, 1, 5, 1, 1, 1, 2, 1, 1, 1\n2, 0, 1, 3, 1, 1, 1, 1, 1, 1, 5, 1, 1, 2\n1, 4, 1, 1, 1, 2, 2, 1, 1, 1, 3, 1, 1, 1\n1, 1, 1, 1, 1, 1, 1, 1, 1, 1, 1, 1, 1, 4\n1, 1, 1, 1, 3, 1, 4, 1, 1, 1, 2, 1, 1, 1\n1, 2, 1, 2, 1, 2, 1, 1, 1, 1, 1, 1, 1, 1\n1, 1, 1, 2, 1, 1, 1, 1, 1, 1, 1, 1, 1, 1\n1, 1, 1, 1, 1, 1, 1, 1, 1, 1, 1, 1, 1, 1]\nclass = y[353]"] ;
8 -> 12 ;
13 [label="(...)"] ;
12 -> 13 ;
14 [label="(...)"] ;
12 -> 14 ;
}